digraph Tree {
node [shape=box, style="filled, rounded", color="black", fontname="helvetica"] ;
edge [fontname="helvetica"] ;
0 [label=<feature_2 &le; 0.809<br/>gini = 0.786<br/>samples = 50<br/>value = [6.0, 11.0, 14.0, 9.0, 10.0]<br/>class = 3>, fillcolor="#f0fdfb"] ;
1 [label=<feature_3 &le; 0.396<br/>gini = 0.755<br/>samples = 40<br/>value = [4, 10, 14, 8, 4]<br/>class = 3>, fillcolor="#e5fcf7"] ;
0 -> 1 [labeldistance=2.5, labelangle=45, headlabel="True"] ;
2 [label=<feature_14 &le; 0.6<br/>gini = 0.667<br/>samples = 15<br/>value = [3, 0, 7, 1, 4]<br/>class = 3>, fillcolor="#c9f8ef"] ;
1 -> 2 ;
3 [label=<feature_2 &le; 0.596<br/>gini = 0.406<br/>samples = 8<br/>value = [1, 0, 6, 1, 0]<br/>class = 3>, fillcolor="#72ecd6"] ;
2 -> 3 ;
4 [label=<gini = 0.0<br/>samples = 6<br/>value = [0, 0, 6, 0, 0]<br/>class = 3>, fillcolor="#39e5c5"] ;
3 -> 4 ;
5 [label=<feature_5 &le; 0.61<br/>gini = 0.5<br/>samples = 2<br/>value = [1, 0, 0, 1, 0]<br/>class = 1>, fillcolor="#ffffff"] ;
3 -> 5 ;
6 [label=<gini = 0.0<br/>samples = 1<br/>value = [1, 0, 0, 0, 0]<br/>class = 1>, fillcolor="#e58139"] ;
5 -> 6 ;
7 [label=<gini = 0.0<br/>samples = 1<br/>value = [0, 0, 0, 1, 0]<br/>class = 4>, fillcolor="#3c39e5"] ;
5 -> 7 ;
8 [label=<feature_1 &le; 0.656<br/>gini = 0.571<br/>samples = 7<br/>value = [2, 0, 1, 0, 4]<br/>class = 5>, fillcolor="#f5b0e6"] ;
2 -> 8 ;
9 [label=<gini = 0.0<br/>samples = 4<br/>value = [0, 0, 0, 0, 4]<br/>class = 5>, fillcolor="#e539c0"] ;
8 -> 9 ;
10 [label=<feature_16 &le; 0.799<br/>gini = 0.444<br/>samples = 3<br/>value = [2, 0, 1, 0, 0]<br/>class = 1>, fillcolor="#f2c09c"] ;
8 -> 10 ;
11 [label=<gini = 0.0<br/>samples = 2<br/>value = [2, 0, 0, 0, 0]<br/>class = 1>, fillcolor="#e58139"] ;
10 -> 11 ;
12 [label=<gini = 0.0<br/>samples = 1<br/>value = [0, 0, 1, 0, 0]<br/>class = 3>, fillcolor="#39e5c5"] ;
10 -> 12 ;
13 [label=<feature_13 &le; 0.746<br/>gini = 0.682<br/>samples = 25<br/>value = [1.0, 10.0, 7.0, 7.0, 0.0]<br/>class = 2>, fillcolor="#e9fbde"] ;
1 -> 13 ;
14 [label=<feature_5 &le; 0.644<br/>gini = 0.473<br/>samples = 13<br/>value = [0, 9, 2, 2, 0]<br/>class = 2>, fillcolor="#abee81"] ;
13 -> 14 ;
15 [label=<gini = 0.0<br/>samples = 8<br/>value = [0, 8, 0, 0, 0]<br/>class = 2>, fillcolor="#7be539"] ;
14 -> 15 ;
16 [label=<feature_8 &le; 0.689<br/>gini = 0.64<br/>samples = 5<br/>value = [0, 1, 2, 2, 0]<br/>class = 3>, fillcolor="#ffffff"] ;
14 -> 16 ;
17 [label=<feature_4 &le; 0.358<br/>gini = 0.444<br/>samples = 3<br/>value = [0, 1, 2, 0, 0]<br/>class = 3>, fillcolor="#9cf2e2"] ;
16 -> 17 ;
18 [label=<gini = 0.0<br/>samples = 1<br/>value = [0, 1, 0, 0, 0]<br/>class = 2>, fillcolor="#7be539"] ;
17 -> 18 ;
19 [label=<gini = 0.0<br/>samples = 2<br/>value = [0, 0, 2, 0, 0]<br/>class = 3>, fillcolor="#39e5c5"] ;
17 -> 19 ;
20 [label=<gini = 0.0<br/>samples = 2<br/>value = [0, 0, 0, 2, 0]<br/>class = 4>, fillcolor="#3c39e5"] ;
16 -> 20 ;
21 [label=<feature_1 &le; 0.146<br/>gini = 0.639<br/>samples = 12<br/>value = [1, 1, 5, 5, 0]<br/>class = 3>, fillcolor="#ffffff"] ;
13 -> 21 ;
22 [label=<gini = 0.0<br/>samples = 3<br/>value = [0, 0, 3, 0, 0]<br/>class = 3>, fillcolor="#39e5c5"] ;
21 -> 22 ;
23 [label=<feature_18 &le; 0.625<br/>gini = 0.617<br/>samples = 9<br/>value = [1, 1, 2, 5, 0]<br/>class = 4>, fillcolor="#abaaf4"] ;
21 -> 23 ;
24 [label=<feature_11 &le; 0.951<br/>gini = 0.278<br/>samples = 6<br/>value = [0, 0, 1, 5, 0]<br/>class = 4>, fillcolor="#6361ea"] ;
23 -> 24 ;
25 [label=<gini = 0.0<br/>samples = 5<br/>value = [0, 0, 0, 5, 0]<br/>class = 4>, fillcolor="#3c39e5"] ;
24 -> 25 ;
26 [label=<gini = 0.0<br/>samples = 1<br/>value = [0, 0, 1, 0, 0]<br/>class = 3>, fillcolor="#39e5c5"] ;
24 -> 26 ;
27 [label=<feature_15 &le; 0.109<br/>gini = 0.667<br/>samples = 3<br/>value = [1, 1, 1, 0, 0]<br/>class = 1>, fillcolor="#ffffff"] ;
23 -> 27 ;
28 [label=<gini = 0.0<br/>samples = 1<br/>value = [1, 0, 0, 0, 0]<br/>class = 1>, fillcolor="#e58139"] ;
27 -> 28 ;
29 [label=<feature_5 &le; 0.386<br/>gini = 0.5<br/>samples = 2<br/>value = [0, 1, 1, 0, 0]<br/>class = 2>, fillcolor="#ffffff"] ;
27 -> 29 ;
30 [label=<gini = 0.0<br/>samples = 1<br/>value = [0, 0, 1, 0, 0]<br/>class = 3>, fillcolor="#39e5c5"] ;
29 -> 30 ;
31 [label=<gini = 0.0<br/>samples = 1<br/>value = [0, 1, 0, 0, 0]<br/>class = 2>, fillcolor="#7be539"] ;
29 -> 31 ;
32 [label=<feature_2 &le; 0.955<br/>gini = 0.58<br/>samples = 10<br/>value = [2, 1, 0, 1, 6]<br/>class = 5>, fillcolor="#f29ce0"] ;
0 -> 32 [labeldistance=2.5, labelangle=-45, headlabel="False"] ;
33 [label=<gini = 0.0<br/>samples = 6<br/>value = [0, 0, 0, 0, 6]<br/>class = 5>, fillcolor="#e539c0"] ;
32 -> 33 ;
34 [label=<feature_6 &le; 0.367<br/>gini = 0.625<br/>samples = 4<br/>value = [2, 1, 0, 1, 0]<br/>class = 1>, fillcolor="#f6d5bd"] ;
32 -> 34 ;
35 [label=<gini = 0.0<br/>samples = 2<br/>value = [2, 0, 0, 0, 0]<br/>class = 1>, fillcolor="#e58139"] ;
34 -> 35 ;
36 [label=<feature_7 &le; 0.294<br/>gini = 0.5<br/>samples = 2<br/>value = [0, 1, 0, 1, 0]<br/>class = 2>, fillcolor="#ffffff"] ;
34 -> 36 ;
37 [label=<gini = 0.0<br/>samples = 1<br/>value = [0, 0, 0, 1, 0]<br/>class = 4>, fillcolor="#3c39e5"] ;
36 -> 37 ;
38 [label=<gini = 0.0<br/>samples = 1<br/>value = [0, 1, 0, 0, 0]<br/>class = 2>, fillcolor="#7be539"] ;
36 -> 38 ;
}