digraph Tree {
node [shape=box, style="filled, rounded", color="black", fontname="helvetica"] ;
edge [fontname="helvetica"] ;
0 [label=<feature_10 &le; 0.588<br/>gini = 0.778<br/>samples = 33<br/>value = [10.0, 8.0, 5.0, 13.0, 14.0]<br/>class = 5>, fillcolor="#fefafd"] ;
1 [label=<feature_14 &le; 0.796<br/>gini = 0.612<br/>samples = 14<br/>value = [1, 3, 1, 4, 12]<br/>class = 5>, fillcolor="#f3a2e1"] ;
0 -> 1 [labeldistance=2.5, labelangle=45, headlabel="True"] ;
2 [label=<feature_17 &le; 0.608<br/>gini = 0.5<br/>samples = 12<br/>value = [1, 0, 1, 4, 12]<br/>class = 5>, fillcolor="#f08edb"] ;
1 -> 2 ;
3 [label=<feature_15 &le; 0.655<br/>gini = 0.5<br/>samples = 5<br/>value = [0, 0, 1, 4, 1]<br/>class = 4>, fillcolor="#8a88ef"] ;
2 -> 3 ;
4 [label=<gini = 0.0<br/>samples = 3<br/>value = [0, 0, 0, 4, 0]<br/>class = 4>, fillcolor="#3c39e5"] ;
3 -> 4 ;
5 [label=<feature_5 &le; 0.553<br/>gini = 0.5<br/>samples = 2<br/>value = [0, 0, 1, 0, 1]<br/>class = 3>, fillcolor="#ffffff"] ;
3 -> 5 ;
6 [label=<gini = 0.0<br/>samples = 1<br/>value = [0, 0, 0, 0, 1]<br/>class = 5>, fillcolor="#e539c0"] ;
5 -> 6 ;
7 [label=<gini = 0.0<br/>samples = 1<br/>value = [0, 0, 1, 0, 0]<br/>class = 3>, fillcolor="#39e5c5"] ;
5 -> 7 ;
8 [label=<feature_1 &le; 0.019<br/>gini = 0.153<br/>samples = 7<br/>value = [1, 0, 0, 0, 11]<br/>class = 5>, fillcolor="#e74bc6"] ;
2 -> 8 ;
9 [label=<gini = 0.0<br/>samples = 1<br/>value = [1, 0, 0, 0, 0]<br/>class = 1>, fillcolor="#e58139"] ;
8 -> 9 ;
10 [label=<gini = 0.0<br/>samples = 6<br/>value = [0, 0, 0, 0, 11]<br/>class = 5>, fillcolor="#e539c0"] ;
8 -> 10 ;
11 [label=<gini = 0.0<br/>samples = 2<br/>value = [0, 3, 0, 0, 0]<br/>class = 2>, fillcolor="#7be539"] ;
1 -> 11 ;
12 [label=<feature_5 &le; 0.862<br/>gini = 0.754<br/>samples = 19<br/>value = [9, 5, 4, 9, 2]<br/>class = 1>, fillcolor="#ffffff"] ;
0 -> 12 [labeldistance=2.5, labelangle=-45, headlabel="False"] ;
13 [label=<feature_9 &le; 0.75<br/>gini = 0.744<br/>samples = 15<br/>value = [8, 5, 4, 2, 2]<br/>class = 1>, fillcolor="#fae7da"] ;
12 -> 13 ;
14 [label=<feature_17 &le; 0.746<br/>gini = 0.746<br/>samples = 10<br/>value = [2, 5, 3, 2, 1]<br/>class = 2>, fillcolor="#e5fad7"] ;
13 -> 14 ;
15 [label=<feature_14 &le; 0.318<br/>gini = 0.765<br/>samples = 8<br/>value = [2, 1, 3, 2, 1]<br/>class = 3>, fillcolor="#e3fbf7"] ;
14 -> 15 ;
16 [label=<feature_14 &le; 0.207<br/>gini = 0.444<br/>samples = 2<br/>value = [2, 1, 0, 0, 0]<br/>class = 1>, fillcolor="#f2c09c"] ;
15 -> 16 ;
17 [label=<gini = 0.0<br/>samples = 1<br/>value = [0, 1, 0, 0, 0]<br/>class = 2>, fillcolor="#7be539"] ;
16 -> 17 ;
18 [label=<gini = 0.0<br/>samples = 1<br/>value = [2, 0, 0, 0, 0]<br/>class = 1>, fillcolor="#e58139"] ;
16 -> 18 ;
19 [label=<feature_2 &le; 0.564<br/>gini = 0.611<br/>samples = 6<br/>value = [0, 0, 3, 2, 1]<br/>class = 3>, fillcolor="#cef8f0"] ;
15 -> 19 ;
20 [label=<gini = 0.0<br/>samples = 3<br/>value = [0, 0, 3, 0, 0]<br/>class = 3>, fillcolor="#39e5c5"] ;
19 -> 20 ;
21 [label=<feature_13 &le; 0.505<br/>gini = 0.444<br/>samples = 3<br/>value = [0, 0, 0, 2, 1]<br/>class = 4>, fillcolor="#9e9cf2"] ;
19 -> 21 ;
22 [label=<gini = 0.0<br/>samples = 1<br/>value = [0, 0, 0, 0, 1]<br/>class = 5>, fillcolor="#e539c0"] ;
21 -> 22 ;
23 [label=<gini = 0.0<br/>samples = 2<br/>value = [0, 0, 0, 2, 0]<br/>class = 4>, fillcolor="#3c39e5"] ;
21 -> 23 ;
24 [label=<gini = 0.0<br/>samples = 2<br/>value = [0, 4, 0, 0, 0]<br/>class = 2>, fillcolor="#7be539"] ;
14 -> 24 ;
25 [label=<feature_9 &le; 0.918<br/>gini = 0.406<br/>samples = 5<br/>value = [6, 0, 1, 0, 1]<br/>class = 1>, fillcolor="#eca572"] ;
13 -> 25 ;
26 [label=<gini = 0.0<br/>samples = 3<br/>value = [6, 0, 0, 0, 0]<br/>class = 1>, fillcolor="#e58139"] ;
25 -> 26 ;
27 [label=<feature_17 &le; 0.247<br/>gini = 0.5<br/>samples = 2<br/>value = [0, 0, 1, 0, 1]<br/>class = 3>, fillcolor="#ffffff"] ;
25 -> 27 ;
28 [label=<gini = 0.0<br/>samples = 1<br/>value = [0, 0, 0, 0, 1]<br/>class = 5>, fillcolor="#e539c0"] ;
27 -> 28 ;
29 [label=<gini = 0.0<br/>samples = 1<br/>value = [0, 0, 1, 0, 0]<br/>class = 3>, fillcolor="#39e5c5"] ;
27 -> 29 ;
30 [label=<feature_18 &le; 0.341<br/>gini = 0.219<br/>samples = 4<br/>value = [1, 0, 0, 7, 0]<br/>class = 4>, fillcolor="#5855e9"] ;
12 -> 30 ;
31 [label=<gini = 0.0<br/>samples = 1<br/>value = [1, 0, 0, 0, 0]<br/>class = 1>, fillcolor="#e58139"] ;
30 -> 31 ;
32 [label=<gini = 0.0<br/>samples = 3<br/>value = [0, 0, 0, 7, 0]<br/>class = 4>, fillcolor="#3c39e5"] ;
30 -> 32 ;
}